<?xml version="1.0"?>
<opencv_storage>
<cascade>
  <stageType>BOOST</stageType>
  <featureType>HAAR</featureType>
  <height>14</height>
  <width>28</width>
  <stageParams>
    <boostType>GAB</boostType>
    <minHitRate>9.9900001287460327e-01</minHitRate>
    <maxFalseAlarm>5.0000000000000000e-01</maxFalseAlarm>
    <weightTrimRate>9.4999999999999996e-01</weightTrimRate>
    <maxDepth>1</maxDepth>
    <maxWeakCount>100</maxWeakCount></stageParams>
  <featureParams>
    <maxCatCount>0</maxCatCount>
    <featSize>1</featSize>
    <mode>ALL</mode></featureParams>
  <stageNum>10</stageNum>
  <stages>
    <!-- stage 0 -->
    <_>
      <maxWeakCount>3</maxWeakCount>
      <stageThreshold>-1.3200541734695435e+00</stageThreshold>
      <weakClassifiers>
        <_>
          <internalNodes>
            0 -1 31 -5.1531404256820679e-02</internalNodes>
          <leafValues>
            1.1627907305955887e-01 -9.7583079338073730e-01</leafValues></_>
        <_>
          <internalNodes>
            0 -1 25 -2.9522574041038752e-03</internalNodes>
          <leafValues>
            6.1953914165496826e-01 -9.0306645631790161e-01</leafValues></_>
        <_>
          <internalNodes>
            0 -1 14 -1.0001443326473236e-01</internalNodes>
          <leafValues>
            6.1270850896835327e-01 -9.6376246213912964e-01</leafValues></_></weakClassifiers></_>
    <!-- stage 1 -->
    <_>
      <maxWeakCount>3</maxWeakCount>
      <stageThreshold>-1.5759288072586060e+00</stageThreshold>
      <weakClassifiers>
        <_>
          <internalNodes>
            0 -1 16 1.4063643291592598e-02</internalNodes>
          <leafValues>
            -9.5107632875442505e-01 5.7142859697341919e-01</leafValues></_>
        <_>
          <internalNodes>
            0 -1 1 -6.8542048335075378e-02</internalNodes>
          <leafValues>
            5.0866830348968506e-01 -8.7671750783920288e-01</leafValues></_>
        <_>
          <internalNodes>
            0 -1 15 -2.7315352112054825e-02</internalNodes>
          <leafValues>
            2.5186499953269958e-01 -9.6138006448745728e-01</leafValues></_></weakClassifiers></_>
    <!-- stage 2 -->
    <_>
      <maxWeakCount>3</maxWeakCount>
      <stageThreshold>-1.7514257431030273e+00</stageThreshold>
      <weakClassifiers>
        <_>
          <internalNodes>
            0 -1 23 -1.5234602615237236e-02</internalNodes>
          <leafValues>
            2.2222222387790680e-01 -9.5088410377502441e-01</leafValues></_>
        <_>
          <internalNodes>
            0 -1 28 -1.8289051949977875e-02</internalNodes>
          <leafValues>
            -1.7458136379718781e-01 -9.7710657119750977e-01</leafValues></_>
        <_>
          <internalNodes>
            0 -1 26 -2.4898085743188858e-02</internalNodes>
          <leafValues>
            6.0536032915115356e-01 -6.2596029043197632e-01</leafValues></_></weakClassifiers></_>
    <!-- stage 3 -->
    <_>
      <maxWeakCount>5</maxWeakCount>
      <stageThreshold>-2.0803484916687012e+00</stageThreshold>
      <weakClassifiers>
        <_>
          <internalNodes>
            0 -1 20 -9.1039892286062241e-03</internalNodes>
          <leafValues>
            4.0000000596046448e-01 -9.4346976280212402e-01</leafValues></_>
        <_>
          <internalNodes>
            0 -1 17 5.0996495410799980e-03</internalNodes>
          <leafValues>
            -7.8908437490463257e-01 3.8275617361068726e-01</leafValues></_>
        <_>
          <internalNodes>
            0 -1 37 -6.7058140411973000e-03</internalNodes>
          <leafValues>
            2.3545038700103760e-01 -8.7418550252914429e-01</leafValues></_>
        <_>
          <internalNodes>
            0 -1 30 -8.6419767467305064e-04</internalNodes>
          <leafValues>
            3.3376491069793701e-01 -8.5415595769882202e-01</leafValues></_>
        <_>
          <internalNodes>
            0 -1 4 -4.2368818074464798e-02</internalNodes>
          <leafValues>
            2.7091133594512939e-01 -1.</leafValues></_></weakClassifiers></_>
    <!-- stage 4 -->
    <_>
      <maxWeakCount>4</maxWeakCount>
      <stageThreshold>-1.8366053104400635e+00</stageThreshold>
      <weakClassifiers>
        <_>
          <internalNodes>
            0 -1 6 1.5213358215987682e-02</internalNodes>
          <leafValues>
            -9.3986421823501587e-01 1.</leafValues></_>
        <_>
          <internalNodes>
            0 -1 8 -4.9037612043321133e-03</internalNodes>
          <leafValues>
            2.9929345846176147e-01 -8.0067533254623413e-01</leafValues></_>
        <_>
          <internalNodes>
            0 -1 9 -3.4501166082918644e-03</internalNodes>
          <leafValues>
            7.8179162740707397e-01 -5.0013804435729980e-01</leafValues></_>
        <_>
          <internalNodes>
            0 -1 34 3.4846616908907890e-03</internalNodes>
          <leafValues>
            -6.9589656591415405e-01 4.6844074130058289e-01</leafValues></_></weakClassifiers></_>
    <!-- stage 5 -->
    <_>
      <maxWeakCount>3</maxWeakCount>
      <stageThreshold>-1.5032346248626709e+00</stageThreshold>
      <weakClassifiers>
        <_>
          <internalNodes>
            0 -1 12 1.1462306603789330e-02</internalNodes>
          <leafValues>
            -9.5044600963592529e-01 -1.8518517911434174e-01</leafValues></_>
        <_>
          <internalNodes>
            0 -1 2 -3.0425218865275383e-02</internalNodes>
          <leafValues>
            2.0892471075057983e-01 -7.9671728610992432e-01</leafValues></_>
        <_>
          <internalNodes>
            0 -1 5 1.1626686155796051e-01</internalNodes>
          <leafValues>
            -7.6171338558197021e-01 4.9885195493698120e-01</leafValues></_></weakClassifiers></_>
    <!-- stage 6 -->
    <_>
      <maxWeakCount>5</maxWeakCount>
      <stageThreshold>-1.9427974224090576e+00</stageThreshold>
      <weakClassifiers>
        <_>
          <internalNodes>
            0 -1 21 -2.4686183035373688e-01</internalNodes>
          <leafValues>
            5.0000000000000000e-01 -9.4726562500000000e-01</leafValues></_>
        <_>
          <internalNodes>
            0 -1 19 3.9220987819135189e-03</internalNodes>
          <leafValues>
            -8.5328382253646851e-01 2.2326029837131500e-01</leafValues></_>
        <_>
          <internalNodes>
            0 -1 10 1.7045725136995316e-02</internalNodes>
          <leafValues>
            -7.0351129770278931e-01 3.7296763062477112e-01</leafValues></_>
        <_>
          <internalNodes>
            0 -1 3 -2.3631312069483101e-04</internalNodes>
          <leafValues>
            2.5594523549079895e-01 -9.1750907897949219e-01</leafValues></_>
        <_>
          <internalNodes>
            0 -1 36 -4.6057283179834485e-04</internalNodes>
          <leafValues>
            3.0531814694404602e-01 -8.3798241615295410e-01</leafValues></_></weakClassifiers></_>
    <!-- stage 7 -->
    <_>
      <maxWeakCount>3</maxWeakCount>
      <stageThreshold>-1.7330380678176880e+00</stageThreshold>
      <weakClassifiers>
        <_>
          <internalNodes>
            0 -1 13 6.1693442985415459e-03</internalNodes>
          <leafValues>
            -9.5083576440811157e-01 1.5789473056793213e-01</leafValues></_>
        <_>
          <internalNodes>
            0 -1 33 8.0257747322320938e-03</internalNodes>
          <leafValues>
            -8.7421947717666626e-01 -6.7118950188159943e-02</leafValues></_>
        <_>
          <internalNodes>
            0 -1 35 -2.5832280516624451e-03</internalNodes>
          <leafValues>
            2.4076332151889801e-01 -7.1508330106735229e-01</leafValues></_></weakClassifiers></_>
    <!-- stage 8 -->
    <_>
      <maxWeakCount>5</maxWeakCount>
      <stageThreshold>-1.7900055646896362e+00</stageThreshold>
      <weakClassifiers>
        <_>
          <internalNodes>
            0 -1 18 -1.5262844040989876e-02</internalNodes>
          <leafValues>
            1. -9.4741964340209961e-01</leafValues></_>
        <_>
          <internalNodes>
            0 -1 11 1.5757106244564056e-02</internalNodes>
          <leafValues>
            -8.1570971012115479e-01 6.4882475137710571e-01</leafValues></_>
        <_>
          <internalNodes>
            0 -1 0 -2.8595286607742310e-01</internalNodes>
          <leafValues>
            8.1112062931060791e-01 -5.7576644420623779e-01</leafValues></_>
        <_>
          <internalNodes>
            0 -1 27 -2.4543784558773041e-02</internalNodes>
          <leafValues>
            -1. 2.8895589709281921e-01</leafValues></_>
        <_>
          <internalNodes>
            0 -1 22 4.0053711272776127e-03</internalNodes>
          <leafValues>
            -9.2968338727951050e-01 2.5993442535400391e-01</leafValues></_></weakClassifiers></_>
    <!-- stage 9 -->
    <_>
      <maxWeakCount>4</maxWeakCount>
      <stageThreshold>-1.5011898279190063e+00</stageThreshold>
      <weakClassifiers>
        <_>
          <internalNodes>
            0 -1 24 1.2930488213896751e-02</internalNodes>
          <leafValues>
            -9.5312500000000000e-01 1.</leafValues></_>
        <_>
          <internalNodes>
            0 -1 29 7.9423338174819946e-03</internalNodes>
          <leafValues>
            -8.2783716917037964e-01 1.</leafValues></_>
        <_>
          <internalNodes>
            0 -1 32 2.2922358475625515e-03</internalNodes>
          <leafValues>
            -5.7932752370834351e-01 7.2972106933593750e-01</leafValues></_>
        <_>
          <internalNodes>
            0 -1 7 -9.1258585453033447e-03</internalNodes>
          <leafValues>
            9.3198162317276001e-01 -4.4994878768920898e-01</leafValues></_></weakClassifiers></_></stages>
  <features>
    <_>
      <rects>
        <_>
          0 0 25 12 -1.</_>
        <_>
          0 6 25 6 2.</_></rects>
      <tilted>0</tilted></_>
    <_>
      <rects>
        <_>
          0 3 10 4 -1.</_>
        <_>
          5 3 5 4 2.</_></rects>
      <tilted>0</tilted></_>
    <_>
      <rects>
        <_>
          2 5 4 6 -1.</_>
        <_>
          4 5 2 6 2.</_></rects>
      <tilted>0</tilted></_>
    <_>
      <rects>
        <_>
          2 10 22 1 -1.</_>
        <_>
          13 10 11 1 2.</_></rects>
      <tilted>0</tilted></_>
    <_>
      <rects>
        <_>
          3 0 15 10 -1.</_>
        <_>
          8 0 5 10 3.</_></rects>
      <tilted>0</tilted></_>
    <_>
      <rects>
        <_>
          6 2 11 10 -1.</_>
        <_>
          6 7 11 5 2.</_></rects>
      <tilted>0</tilted></_>
    <_>
      <rects>
        <_>
          6 4 4 2 -1.</_>
        <_>
          6 4 2 1 2.</_>
        <_>
          8 5 2 1 2.</_></rects>
      <tilted>0</tilted></_>
    <_>
      <rects>
        <_>
          7 2 12 2 -1.</_>
        <_>
          7 2 6 1 2.</_>
        <_>
          13 3 6 1 2.</_></rects>
      <tilted>0</tilted></_>
    <_>
      <rects>
        <_>
          7 3 1 3 -1.</_>
        <_>
          7 4 1 1 3.</_></rects>
      <tilted>0</tilted></_>
    <_>
      <rects>
        <_>
          7 5 2 2 -1.</_>
        <_>
          7 5 1 1 2.</_>
        <_>
          8 6 1 1 2.</_></rects>
      <tilted>0</tilted></_>
    <_>
      <rects>
        <_>
          8 6 3 3 -1.</_>
        <_>
          9 7 1 1 9.</_></rects>
      <tilted>0</tilted></_>
    <_>
      <rects>
        <_>
          8 6 3 3 -1.</_>
        <_>
          9 6 1 3 3.</_></rects>
      <tilted>0</tilted></_>
    <_>
      <rects>
        <_>
          8 7 3 1 -1.</_>
        <_>
          9 7 1 1 3.</_></rects>
      <tilted>0</tilted></_>
    <_>
      <rects>
        <_>
          9 2 3 1 -1.</_>
        <_>
          10 2 1 1 3.</_></rects>
      <tilted>0</tilted></_>
    <_>
      <rects>
        <_>
          9 2 6 9 -1.</_>
        <_>
          11 5 2 3 9.</_></rects>
      <tilted>0</tilted></_>
    <_>
      <rects>
        <_>
          9 4 6 9 -1.</_>
        <_>
          11 4 2 9 3.</_></rects>
      <tilted>0</tilted></_>
    <_>
      <rects>
        <_>
          9 6 2 4 -1.</_>
        <_>
          9 6 1 2 2.</_>
        <_>
          10 8 1 2 2.</_></rects>
      <tilted>0</tilted></_>
    <_>
      <rects>
        <_>
          9 7 2 2 -1.</_>
        <_>
          9 7 1 1 2.</_>
        <_>
          10 8 1 1 2.</_></rects>
      <tilted>0</tilted></_>
    <_>
      <rects>
        <_>
          9 7 3 1 -1.</_>
        <_>
          10 8 1 1 3.</_></rects>
      <tilted>1</tilted></_>
    <_>
      <rects>
        <_>
          9 9 3 1 -1.</_>
        <_>
          10 9 1 1 3.</_></rects>
      <tilted>0</tilted></_>
    <_>
      <rects>
        <_>
          10 8 2 2 -1.</_>
        <_>
          10 8 1 1 2.</_>
        <_>
          11 9 1 1 2.</_></rects>
      <tilted>0</tilted></_>
    <_>
      <rects>
        <_>
          11 0 9 12 -1.</_>
        <_>
          11 6 9 6 2.</_></rects>
      <tilted>0</tilted></_>
    <_>
      <rects>
        <_>
          11 4 8 4 -1.</_>
        <_>
          13 4 4 4 2.</_></rects>
      <tilted>0</tilted></_>
    <_>
      <rects>
        <_>
          11 6 1 2 -1.</_>
        <_>
          11 6 1 1 2.</_></rects>
      <tilted>1</tilted></_>
    <_>
      <rects>
        <_>
          12 5 2 5 -1.</_>
        <_>
          13 5 1 5 2.</_></rects>
      <tilted>0</tilted></_>
    <_>
      <rects>
        <_>
          12 6 2 2 -1.</_>
        <_>
          12 6 1 1 2.</_>
        <_>
          13 7 1 1 2.</_></rects>
      <tilted>0</tilted></_>
    <_>
      <rects>
        <_>
          12 6 3 3 -1.</_>
        <_>
          13 7 1 1 9.</_></rects>
      <tilted>0</tilted></_>
    <_>
      <rects>
        <_>
          13 4 8 9 -1.</_>
        <_>
          17 4 4 9 2.</_></rects>
      <tilted>0</tilted></_>
    <_>
      <rects>
        <_>
          13 4 6 6 -1.</_>
        <_>
          13 6 6 2 3.</_></rects>
      <tilted>0</tilted></_>
    <_>
      <rects>
        <_>
          13 10 2 3 -1.</_>
        <_>
          13 11 2 1 3.</_></rects>
      <tilted>0</tilted></_>
    <_>
      <rects>
        <_>
          14 3 4 4 -1.</_>
        <_>
          15 3 2 4 2.</_></rects>
      <tilted>0</tilted></_>
    <_>
      <rects>
        <_>
          14 3 2 6 -1.</_>
        <_>
          12 5 2 2 3.</_></rects>
      <tilted>1</tilted></_>
    <_>
      <rects>
        <_>
          15 8 3 5 -1.</_>
        <_>
          16 8 1 5 3.</_></rects>
      <tilted>0</tilted></_>
    <_>
      <rects>
        <_>
          16 0 2 9 -1.</_>
        <_>
          16 0 1 9 2.</_></rects>
      <tilted>1</tilted></_>
    <_>
      <rects>
        <_>
          16 4 2 3 -1.</_>
        <_>
          15 5 2 1 3.</_></rects>
      <tilted>1</tilted></_>
    <_>
      <rects>
        <_>
          16 8 4 2 -1.</_>
        <_>
          17 9 2 2 2.</_></rects>
      <tilted>1</tilted></_>
    <_>
      <rects>
        <_>
          17 9 8 2 -1.</_>
        <_>
          17 9 4 1 2.</_>
        <_>
          21 10 4 1 2.</_></rects>
      <tilted>0</tilted></_>
    <_>
      <rects>
        <_>
          19 7 1 6 -1.</_>
        <_>
          19 7 1 3 2.</_></rects>
      <tilted>1</tilted></_></features></cascade>
</opencv_storage>
